{
    "score": "0.44052706552706555",
    "input_layer_size": 19,
    "hidden_layer_size": 65,
    "output_layer_size": 13,
    "weights": {
        "input_to_hidden": [
            {
                "weights": [
                    -0.2813531400955397,
                    -0.5843378323273349,
                    2.817325335148844,
                    1.272026511212519,
                    0.02729933114414835,
                    1.0604074331344668,
                    -0.14748331344759025,
                    -0.3632363488860529,
                    -0.6262815469203823,
                    1.0299860265698353,
                    -2.2794897849052878,
                    -1.7575541390477212,
                    0.34240047070540264,
                    -2.531832737539907,
                    0.13803948008434777,
                    -1.2286331181078836,
                    -0.3766457164019827,
                    0.6484489430014883,
                    1.7007627694856993,
                    -1.0429213134832314
                ],
                "output": 0.3052074820033444,
                "delta": 0.011043049505820503
            },
            {
                "weights": [
                    0.4000056854518264,
                    0.3896047776153711,
                    -0.523358312451765,
                    0.2853027048317726,
                    -0.09141369406595601,
                    1.0006975287735547,
                    -0.5137958391147845,
                    0.7770550858924213,
                    -0.7726440959290365,
                    -0.771646196241229,
                    -0.9474155662385512,
                    -0.874120587479204,
                    -0.7325846002538563,
                    -1.1865920944090962,
                    0.8055902927023043,
                    -0.2961693833675807,
                    0.8474287830768288,
                    -0.9914727073181625,
                    0.34120211625569147,
                    -0.8445861194303607
                ],
                "output": 0.13997751006437445,
                "delta": -0.002051493141605675
            },
            {
                "weights": [
                    -0.6049710750958567,
                    0.5275195373993887,
                    0.14810091125640762,
                    0.5905631043081884,
                    -0.5581105315930343,
                    -0.6658802860655088,
                    0.16373771102273038,
                    -0.6712987407567435,
                    0.28223303792722393,
                    0.7155533721261763,
                    -0.43231784674495277,
                    -0.8983464409544597,
                    -0.9249916351774284,
                    -0.821254551176211,
                    -0.5151737161272509,
                    -0.9288863828264255,
                    -0.39113046596331397,
                    -0.5888971068251395,
                    -0.2989889804267627,
                    -0.51873123644224
                ],
                "output": 0.050080218443983485,
                "delta": 0.0013143637673942612
            },
            {
                "weights": [
                    -0.7946981102198494,
                    0.7218895174084781,
                    -1.7662425288550747,
                    -0.5251897995843693,
                    -0.1424886917085965,
                    0.0034884247193098764,
                    0.18011230262084826,
                    0.623913676177154,
                    0.29812317455327514,
                    -0.8324704228688717,
                    0.08397562600069211,
                    1.5332513475527938,
                    0.9048618345875269,
                    1.0456465458594637,
                    -0.9201796012799427,
                    -1.720862437962057,
                    1.601213583952563,
                    1.1125972542057336,
                    2.2727437117693365,
                    -0.548632013097932
                ],
                "output": 0.26120297792494546,
                "delta": 0.006576092182118298
            },
            {
                "weights": [
                    -1.2943360131620285,
                    0.3343397331480409,
                    0.13532533884337164,
                    -0.9117686384520665,
                    0.7595256491563829,
                    0.24027971879593935,
                    -0.10319227049554854,
                    0.6632699349505309,
                    1.6704095233681735,
                    -1.4071992257751673,
                    0.06081684005340182,
                    0.10370518583097743,
                    0.78699144908729,
                    -0.829286266321619,
                    1.1024327044574262,
                    1.0765000606240474,
                    -1.507991351376019,
                    -0.8228649062505092,
                    -0.215319070104011,
                    -0.02322845946486914
                ],
                "output": 0.8852551477150737,
                "delta": 0.0004362863450579358
            },
            {
                "weights": [
                    1.3605011965734646,
                    0.3074646685219481,
                    1.680245494528544,
                    1.1313488317434244,
                    0.3716233475370206,
                    -0.5867374286032615,
                    -0.5803964115964083,
                    0.09010220817054843,
                    -0.6602860504551648,
                    1.2675678927247345,
                    -0.9558737186739129,
                    -0.3782002652970701,
                    -0.7590396635586338,
                    -0.8368845874459696,
                    0.40732392059100053,
                    -0.5495052034821192,
                    1.2353686643674384,
                    0.26988005578103014,
                    -1.0924662191551269,
                    0.4763436758226314
                ],
                "output": 0.8497190596305051,
                "delta": -0.007497339500679858
            },
            {
                "weights": [
                    -0.6177810008556006,
                    0.3633229740245097,
                    -0.04747851749167328,
                    0.45281013078709037,
                    0.509611907589396,
                    -0.2595651525569341,
                    1.1705053356725228,
                    -0.7788216440709584,
                    0.0407907760431586,
                    -0.6644030243221636,
                    -0.9237729931521084,
                    0.7540401797068456,
                    0.4485080311725902,
                    -0.5128678784589328,
                    -0.3429235719508206,
                    0.483162874208327,
                    -0.6156434500515535,
                    0.6339614441732002,
                    0.2776402161137876,
                    -0.6894020794544085
                ],
                "output": 0.4214608835761263,
                "delta": 0.00024442264705577956
            },
            {
                "weights": [
                    0.36836570145332,
                    -1.0813768425934522,
                    1.5978269584850733,
                    0.46993617423573225,
                    0.16192979330825244,
                    -0.08506086792702597,
                    -1.5294763479919569,
                    0.4963307138490558,
                    -1.42784066931142,
                    1.9097418917049358,
                    -1.89242251539253,
                    -0.4405692648699026,
                    0.7556947258067368,
                    -1.9213390413284532,
                    0.03287790030406988,
                    0.038488479035434835,
                    -0.18045812462122035,
                    0.4148358165778164,
                    0.12799472528232525,
                    0.7403246703663928
                ],
                "output": 0.4129000213659787,
                "delta": -0.0011550854237803387
            },
            {
                "weights": [
                    0.32594018460150265,
                    0.28999315315550334,
                    3.1735255341394706,
                    -0.5052430935763451,
                    -0.8490863169789433,
                    -1.0805802360788925,
                    1.00699274181988,
                    2.3082045956027955,
                    2.670223696676712,
                    -1.7953296680505326,
                    -1.7969770233265325,
                    -1.9526056920738073,
                    -1.5473401567020606,
                    -2.5430151239338055,
                    0.6912454337274676,
                    -0.8147288090201631,
                    0.0409958908980439,
                    0.6165135862637685,
                    -0.4939436665924371,
                    -1.889775925220958
                ],
                "output": 0.4874013942034953,
                "delta": 0.0146725524422387
            },
            {
                "weights": [
                    -0.4168160426328342,
                    -0.9620050281943835,
                    0.36330439825559485,
                    1.114039682237733,
                    0.20965600744384807,
                    0.1298031381704158,
                    -0.043879762307715384,
                    -0.2312017978608354,
                    -1.7570273706465507,
                    1.7480731012804807,
                    0.8045394567885198,
                    -0.021098562319373272,
                    -0.6041509467809438,
                    0.23927358005422625,
                    -0.7073215933438582,
                    0.3520240624274237,
                    0.6611127583307145,
                    1.1602898965138322,
                    0.05089064429344869,
                    -0.5151781651362306
                ],
                "output": 0.32906641872531833,
                "delta": 0.015396492228637003
            },
            {
                "weights": [
                    0.13775462030070698,
                    -0.3171795697814502,
                    0.0490221852678023,
                    0.49428729841640623,
                    0.8549432099527757,
                    0.6215406558978546,
                    0.7776198033545408,
                    -0.005262060765891594,
                    0.2830786405973287,
                    -0.5248122612100408,
                    0.9175094260753355,
                    0.3075327790095912,
                    -0.3064069785849162,
                    0.49954814229445077,
                    0.8914345768596869,
                    -0.16769540599198035,
                    0.6061761532980776,
                    0.3050503844385963,
                    -0.8290159620050348,
                    0.8209570189459167
                ],
                "output": 0.9776809408451261,
                "delta": -0.00036857561380759416
            },
            {
                "weights": [
                    -1.690076148524929,
                    0.4924942868436305,
                    -1.206935228227931,
                    -1.0656716173397451,
                    1.4802930781731996,
                    0.9154222517173167,
                    1.666149191354146,
                    0.6776084725866127,
                    -0.3125924964615457,
                    -2.051138785174882,
                    -0.8837060432957952,
                    -1.6392352523974683,
                    -0.8976963630434923,
                    -0.7104102249123835,
                    -0.23677391865584646,
                    -1.0660794597222458,
                    -0.41029322440245725,
                    -0.9108578212498956,
                    -1.043513663654437,
                    1.897669512321641
                ],
                "output": 0.5459583157414883,
                "delta": -0.015421763051790363
            },
            {
                "weights": [
                    -0.5518021147703409,
                    -0.353936889014519,
                    -0.13245518486408256,
                    0.6056768786205495,
                    -0.2658477507065721,
                    -0.8900451583899474,
                    0.12282165417434822,
                    -0.3054795338594289,
                    0.4209448441303166,
                    0.5140772570025598,
                    0.6424847428694301,
                    -0.14142455300408105,
                    -0.3908383613001171,
                    -0.5055410909128824,
                    -0.5908287033431716,
                    -0.8905241248976091,
                    -0.7942376955376874,
                    -0.9124596479745576,
                    -0.46785879996649254,
                    -0.8660945798720351
                ],
                "output": 0.04287413321721943,
                "delta": 0.002140690149190374
            },
            {
                "weights": [
                    -0.13109573169200844,
                    0.9140739374096513,
                    1.0623382753788977,
                    0.019020599040518178,
                    -0.9485533130399408,
                    -0.03254276799399782,
                    0.1286398531550923,
                    0.6887175642630415,
                    -1.056847509660087,
                    0.6436380411467284,
                    -1.2484239764447762,
                    0.1892232612524036,
                    -0.603818325429468,
                    -1.2187158408441936,
                    -0.8018880370138473,
                    -0.9700099987407043,
                    1.4164974705645585,
                    -0.11677495896434643,
                    -1.3132751402564276,
                    1.5893986424003252
                ],
                "output": 0.6085267150248107,
                "delta": -0.004732793727669963
            },
            {
                "weights": [
                    1.1856686010783026,
                    0.4481973593722102,
                    -3.6956905026676976,
                    -1.7318851179800732,
                    1.3224283842968385,
                    1.5214329836743101,
                    1.5247136951871079,
                    -0.6946830038740076,
                    -2.9730014932828563,
                    0.7478330586492692,
                    2.3108688950884972,
                    2.213656790904219,
                    1.0860743918057003,
                    0.4545529081725471,
                    -1.0309568957925161,
                    -0.8254650534346905,
                    -0.4229341567367426,
                    1.4214283167760458,
                    0.17515377284465838,
                    -1.069358651465722
                ],
                "output": 0.09559680354726616,
                "delta": 0.017004235534502553
            },
            {
                "weights": [
                    0.12079284524249274,
                    -0.7941224726212667,
                    -1.5038038906495854,
                    -0.8732654888208243,
                    0.12108697287565072,
                    -0.5755994952171049,
                    1.323040607786733,
                    0.28997857285582296,
                    -0.2095857364467148,
                    -0.2971353404053387,
                    0.8716920730822124,
                    -0.5909740435615499,
                    0.23990564253745125,
                    1.0575614916678153,
                    -1.27214753545883,
                    -0.3450905073256467,
                    -0.8156100458736678,
                    0.5558304034338858,
                    1.8006334970929379,
                    -0.040638899181691474
                ],
                "output": 0.11774783990625012,
                "delta": 0.0019934734917649954
            },
            {
                "weights": [
                    -0.6934755820504951,
                    -0.49520667275804187,
                    0.6649486016885665,
                    -0.2973142718913477,
                    -0.9029244029679886,
                    -0.2856570932272951,
                    0.43367276671444355,
                    0.5345220952113096,
                    0.48612968704856885,
                    -1.5704209366435449,
                    0.23086460663325506,
                    0.1107570440656564,
                    1.0064060116874698,
                    -0.5150717770307469,
                    -0.35765551102646104,
                    0.6793076089884302,
                    -0.06839467872488127,
                    -0.024375208416590344,
                    -0.46961863287569694,
                    0.07834929041598117
                ],
                "output": 0.43002956527580594,
                "delta": 0.01430953694294043
            },
            {
                "weights": [
                    0.09405793878185617,
                    -1.1676964225949884,
                    0.8431528611560312,
                    -0.44474416224392604,
                    -1.0072308425097571,
                    -0.36386959591778356,
                    0.7268952800475222,
                    1.1031138160724787,
                    -1.1872306137954174,
                    -0.03981297033061765,
                    0.9420128940031537,
                    1.5315136835916734,
                    0.018274818013516228,
                    0.8660273372203013,
                    0.5587626040554567,
                    1.0191272936861453,
                    1.026278906725282,
                    0.2078585245808262,
                    1.1798410493724572,
                    -2.0731442128093103
                ],
                "output": 0.334793044361782,
                "delta": 0.015891237609615524
            },
            {
                "weights": [
                    -0.8304348931465685,
                    0.6458081455690229,
                    -0.3026747221599026,
                    0.4264746623926615,
                    0.29863136508689125,
                    0.29758842898197513,
                    -0.5117492260329528,
                    0.6233069416751935,
                    -0.3566200314259212,
                    -0.7547259094073849,
                    -0.7924375625894408,
                    -0.6042848856592026,
                    0.5884990206296432,
                    -0.8248705997819274,
                    0.1223861809429819,
                    -0.8220849348343127,
                    -0.9348477116613253,
                    -2.110988366065661,
                    -1.1481782048894182,
                    0.10915241259226206
                ],
                "output": 0.2068960459101615,
                "delta": 0.005834379810997008
            },
            {
                "weights": [
                    0.16031681872025846,
                    -0.7904200686858951,
                    1.3035735839386087,
                    -0.43608628703750557,
                    0.27255386976318735,
                    -1.9152382951391391,
                    1.350808680726041,
                    0.8337815213134642,
                    -0.1321363915948919,
                    0.5957084821969227,
                    0.5808586395536538,
                    1.001104754404105,
                    1.080032414707071,
                    -0.2647931244465923,
                    -0.8754012064159363,
                    -0.44850652390576945,
                    0.16676687443612223,
                    0.5183779432868023,
                    -1.0217318060677432,
                    -1.6393774064350195
                ],
                "output": 0.3389760971292228,
                "delta": 0.016962211180337104
            },
            {
                "weights": [
                    1.2469405418847277,
                    0.40391990147242013,
                    1.4420934845885467,
                    -0.4752725161945272,
                    0.1586755195133147,
                    1.1517064222508515,
                    -2.49766871394146,
                    1.8223282872952618,
                    -2.629312212810419,
                    -0.05930649384186609,
                    -0.8445298378778366,
                    1.0428352932865532,
                    1.9032498543201744,
                    0.081809487404082,
                    -1.8767684094138462,
                    -1.376928133425067,
                    0.6493505259257396,
                    -0.6605538230890011,
                    -1.0755613379639153,
                    1.1183846763402003
                ],
                "output": 0.49031511947044093,
                "delta": -0.001959958057744027
            },
            {
                "weights": [
                    -2.4041959609186687,
                    0.3525947891759798,
                    -0.8420414775384635,
                    0.5777873731969958,
                    1.5768915788441684,
                    -1.1926161219954123,
                    -0.38307081177762575,
                    -0.6789601834124036,
                    0.9059309169722064,
                    -0.46854147119676237,
                    -0.66682982012436,
                    -0.17434177491921635,
                    -0.6140694478508822,
                    -0.5684133953520244,
                    1.0947851299723181,
                    1.269182623108884,
                    -2.672657209095881,
                    -2.183627368003676,
                    0.9389936037559841,
                    -0.4083854953990958
                ],
                "output": 0.14930512706134005,
                "delta": -0.0006368431567879641
            },
            {
                "weights": [
                    0.2513451161472461,
                    0.9869141261952309,
                    1.4988582018672154,
                    0.5370051970797988,
                    -1.134289637436797,
                    -0.25486917289065913,
                    -0.7879297076523476,
                    -1.5306517546557403,
                    -1.8069296227662428,
                    0.7418086502673045,
                    -0.4838903144996305,
                    -0.6645646981749826,
                    0.06300183213976372,
                    1.1743751779162648,
                    1.1104154176307293,
                    1.246204147875317,
                    -0.04022960593024442,
                    1.1691546616035478,
                    1.257938623878434,
                    -1.0576026171412092
                ],
                "output": 0.34535440014509783,
                "delta": 0.003058994971053283
            },
            {
                "weights": [
                    -0.3026994899387461,
                    -0.8095836932680355,
                    0.5313925710653824,
                    -0.7133726979619119,
                    -0.335390241744469,
                    0.344836517396288,
                    -0.7411547843704431,
                    0.42414088837682723,
                    -0.5199264849147589,
                    -1.2760686679642466,
                    1.3749014843184222,
                    -0.15789164886342155,
                    -1.144461185981366,
                    0.8345442232065017,
                    -0.5881122072752569,
                    -1.1120006259363262,
                    -0.17823420736083007,
                    0.6315387238416423,
                    -0.6473732775895316,
                    0.5194528635527127
                ],
                "output": 0.1143323051233712,
                "delta": 0.007213510667066081
            },
            {
                "weights": [
                    -0.4963091269961722,
                    0.7102467349418279,
                    0.7413187149103762,
                    -0.16754018121754086,
                    -0.34066278703210934,
                    -0.6730786740526863,
                    -0.2933303541448809,
                    1.9133204619983863,
                    1.8655504996759302,
                    -1.555178425694323,
                    -1.7441667980981697,
                    -2.3200070767920913,
                    -1.835646440380435,
                    -2.6822472799343946,
                    -0.5548470115788571,
                    1.0744922454642778,
                    0.9571830690745763,
                    0.8246190439542981,
                    1.8195504595473173,
                    -1.2794610079241369
                ],
                "output": 0.11007584267790865,
                "delta": 0.00449739817487377
            },
            {
                "weights": [
                    -1.0073733915802079,
                    -1.1958202024335909,
                    1.3000234574771798,
                    0.33983509311529514,
                    -0.5600187867459989,
                    -0.1264718969520126,
                    -0.47912831346153417,
                    0.5698310185548892,
                    1.3359131111542462,
                    -0.7480214173100043,
                    0.8667791995650498,
                    0.8956226814593092,
                    0.35659415710481607,
                    -0.7298474670034794,
                    0.8397262508900674,
                    -0.7117812830333936,
                    0.8707221005913178,
                    0.7257847562910403,
                    -1.5532642103276653,
                    -0.3742710400859494
                ],
                "output": 0.6962820059805205,
                "delta": -0.0031761930745980624
            },
            {
                "weights": [
                    0.3105885184781027,
                    1.0278222282401508,
                    0.6874626488675832,
                    -0.4335853049017546,
                    0.9093813916686286,
                    -0.6777053289697967,
                    -0.03811625462468289,
                    -0.03351607709921709,
                    -0.6414330563091636,
                    0.403909215188485,
                    0.02465298400200492,
                    -0.19149999549134053,
                    -0.7081052705729883,
                    0.5685192567136697,
                    0.5170588154915685,
                    0.8527130053980083,
                    0.42940578215821285,
                    -0.10421832195862722,
                    -0.15902114469149753,
                    0.8921433475853915
                ],
                "output": 0.9294780526857223,
                "delta": -0.0015448237339769136
            },
            {
                "weights": [
                    0.3845815717778706,
                    -0.787299826051041,
                    0.772812547259083,
                    -0.49448765163393105,
                    0.6143906669710951,
                    1.1694084696751919,
                    0.3717492448415173,
                    0.34500564495955216,
                    0.4869369315799657,
                    -0.04571085053000749,
                    -0.06580800542291391,
                    -0.09450046240853424,
                    -0.7046093478671207,
                    0.09203981691159714,
                    -0.1609482108860383,
                    -0.38253899875199915,
                    0.7562776971232134,
                    0.1791920225210584,
                    -0.8410594324685379,
                    0.2357755873747158
                ],
                "output": 0.8735459193492898,
                "delta": -0.0061297518692473175
            },
            {
                "weights": [
                    3.0020633051577477,
                    -1.7604865673035655,
                    0.7724356381020303,
                    2.2443391718055556,
                    -1.3949679294267083,
                    -0.07793445153185811,
                    0.2476858200419174,
                    -2.6076384008005995,
                    0.5391443014646913,
                    1.825876511171266,
                    -0.6794514842870365,
                    1.010915982304164,
                    1.3574523727936325,
                    0.15279648417021727,
                    1.1397014212393715,
                    -0.8497336965663068,
                    1.2087958679147772,
                    1.9619325016792155,
                    0.9117865687099758,
                    -0.6547999273172092
                ],
                "output": 0.7552354713656553,
                "delta": -0.016570340653521913
            },
            {
                "weights": [
                    0.6158732066982775,
                    -0.39758044048397817,
                    -0.8145827800475508,
                    -0.8702869678293513,
                    0.3657347447652498,
                    0.18300703211437894,
                    -0.009615144604929215,
                    0.22664363766136733,
                    -0.1893948510869352,
                    -0.6275608989233424,
                    0.2299884153709974,
                    -0.5493855203068805,
                    0.8017423927613858,
                    -0.24303070256825163,
                    0.4884776927847694,
                    0.3288332334607261,
                    0.605209812554033,
                    -0.6028193482471561,
                    1.2110851655807946,
                    0.3180180562041206
                ],
                "output": 0.5025547515651122,
                "delta": -0.005305072629813584
            },
            {
                "weights": [
                    1.0033615919952805,
                    -0.33168023463360086,
                    -0.15867142418082042,
                    -0.230654039946966,
                    0.06433758464224139,
                    0.4217646116459634,
                    0.3314863970231575,
                    0.4669844431626138,
                    0.5859254346170624,
                    -0.052450383318240514,
                    -0.7043288271960422,
                    -0.7551939910415724,
                    -0.43510076856667396,
                    0.23099284231100337,
                    -0.47719701104801393,
                    -0.4329707084283673,
                    -0.5872944738218904,
                    -0.24329310811984306,
                    0.706720556830712,
                    -0.5193502530804069
                ],
                "output": 0.35519347497861375,
                "delta": -0.0020175515161263806
            },
            {
                "weights": [
                    -2.6689320944945805,
                    -0.5089796099620343,
                    1.0421987586335737,
                    0.41452027914021483,
                    -0.7225103433078194,
                    0.6482428232754514,
                    -0.20587557593926173,
                    -0.7040977097191259,
                    0.5620843330035683,
                    0.1621353405288911,
                    0.46594178989785917,
                    0.6528389093079447,
                    -0.1005233934011371,
                    0.9560947899247304,
                    0.579473994845066,
                    -0.4351257983198457,
                    -1.556298084648839,
                    -1.8715663822672273,
                    1.236252973389385,
                    -0.8598552207812916
                ],
                "output": 0.26008860660818467,
                "delta": 0.006479112379441391
            },
            {
                "weights": [
                    -0.10767216724870202,
                    0.11298084717609583,
                    1.9646039712923271,
                    -0.4888262150633093,
                    -0.31937540502456735,
                    0.7931383864522187,
                    -0.8786042906862426,
                    0.10670970766217594,
                    -0.47431893206669534,
                    0.3237438421649916,
                    -0.5489050415142943,
                    -1.7313792085978423,
                    -1.39565702150508,
                    -1.722695294474138,
                    1.1008392648940377,
                    -1.5539034708195296,
                    0.1595835166834096,
                    0.6633104436086296,
                    1.7774840203592814,
                    -0.026767407738809108
                ],
                "output": 0.2608349813118308,
                "delta": 0.00013776024416801725
            },
            {
                "weights": [
                    0.9655265506543481,
                    0.06758036679263171,
                    -1.3892109102072538,
                    0.12335656255514389,
                    -0.9318613762738142,
                    -0.29285152798490593,
                    -0.06456943087948032,
                    0.7219900580263934,
                    -1.9947711244406903,
                    2.0137172975651536,
                    1.2755011477852667,
                    0.648348274066087,
                    2.1522576638897544,
                    2.0270506251176563,
                    -0.7670436416626498,
                    -1.15943934021698,
                    -0.3342563973312342,
                    -0.32681025576951234,
                    -1.1217641639624185,
                    -0.5819856499752428
                ],
                "output": 0.2808761946339033,
                "delta": 0.016170627960350594
            },
            {
                "weights": [
                    -2.129488213765229,
                    1.710626748524875,
                    0.6011525906133494,
                    -2.210848741971349,
                    0.5728159863333611,
                    -1.0593745716973404,
                    -0.4827420401360279,
                    0.19006327394275596,
                    0.6200936879152419,
                    -2.6860118430876163,
                    -0.1463430393247265,
                    0.3128835883140324,
                    -2.1037459285864726,
                    -0.31377852353757774,
                    -1.0655526845873058,
                    1.6238468529223324,
                    -1.662870397756355,
                    -2.840617430448533,
                    1.444154517677898,
                    0.8676431008664262
                ],
                "output": 0.05110490206529759,
                "delta": 0.0018999459942396666
            },
            {
                "weights": [
                    0.48861805489784677,
                    0.1630112361307611,
                    -0.11863893172861227,
                    0.022755572604891795,
                    -0.5858434745417428,
                    0.5478612287758667,
                    1.0894091329524844,
                    0.36259638902151275,
                    0.2241067357658597,
                    -0.21495644509933104,
                    0.47768558241292386,
                    -0.29740667260837533,
                    -0.004405266330999919,
                    -1.0597666065883917,
                    0.9255666288026971,
                    -0.6820671939097485,
                    -0.04228984271322982,
                    -0.31933947617111913,
                    -1.0350419195259108,
                    -0.6969049821040579
                ],
                "output": 0.5873848316117646,
                "delta": 0.00569920892977466
            },
            {
                "weights": [
                    0.44320712573973403,
                    0.9947059018337511,
                    -0.4565842578671171,
                    -0.7127342996479872,
                    -0.04538373111215099,
                    -0.7750135924899659,
                    1.7494048150468267,
                    -1.1401322878209024,
                    0.5029196988981447,
                    -0.9423878157151461,
                    0.28409465567188597,
                    -0.7752894117140207,
                    -0.117530611935881,
                    0.21139979349566948,
                    0.7421500873798199,
                    -0.7560439213284214,
                    -1.4580258038121474,
                    0.4178473786156867,
                    -0.9087412563512278,
                    0.6672346161329662
                ],
                "output": 0.582424852996867,
                "delta": -0.005994919044287918
            },
            {
                "weights": [
                    0.02483809025112403,
                    0.7856870228154265,
                    0.31310127272962185,
                    -0.36041902882469673,
                    0.4224713130954711,
                    -0.12915393875306116,
                    0.40833396681155293,
                    -0.042254837694293,
                    -1.0555717317094602,
                    1.2479947949402184,
                    1.3640519271547598,
                    -0.647234549529046,
                    0.16561600620442546,
                    -0.2881228217066168,
                    -0.5278042628646202,
                    0.08454525429701984,
                    0.8250963714281958,
                    0.10533942148803618,
                    -1.792673338414268,
                    -0.05442799676509062
                ],
                "output": 0.7014182925432165,
                "delta": 0.006062895291673093
            },
            {
                "weights": [
                    -0.4797786441336506,
                    -0.5184927337987435,
                    0.6137631718801447,
                    -1.4182527684220478,
                    0.5550148905075791,
                    -0.7861164919185699,
                    0.2520057178125268,
                    0.8421870988150919,
                    1.6270460132899598,
                    0.22291120612243406,
                    0.052466864946487876,
                    -1.469595709451273,
                    -0.8097737903360338,
                    -1.453046872309551,
                    -0.44975252422108153,
                    0.6167240603197425,
                    -1.274563299069417,
                    -0.29720941021599256,
                    2.0197003352151164,
                    -1.129634769801802
                ],
                "output": 0.14522027207563387,
                "delta": 0.001620440604884144
            },
            {
                "weights": [
                    -0.04186485716733234,
                    0.14936180636152432,
                    0.6608776089645877,
                    0.6134576786421503,
                    -0.6831742123378308,
                    -0.7051000151337415,
                    0.5210010859567533,
                    0.6386376475846742,
                    0.1479448363506559,
                    0.7460944408659507,
                    -0.45380392673282277,
                    0.47036990628597114,
                    0.7210449212866263,
                    -0.2488882580104896,
                    0.2612370820214131,
                    0.26881281039972704,
                    -0.3876407817102196,
                    0.2696219901453123,
                    -0.1744746565182562,
                    1.0212471896060313
                ],
                "output": 0.9408287921154154,
                "delta": 0.00019976036679814267
            },
            {
                "weights": [
                    -0.5926592105181014,
                    -1.1202660838459004,
                    -0.5773041505083574,
                    1.4032969372944057,
                    0.9460480821881591,
                    0.6550542224758851,
                    0.5756470857216858,
                    1.3883187979485585,
                    -0.875330487748073,
                    0.6844914926305443,
                    0.7806050499684462,
                    -1.126036067143424,
                    -1.1483653528469953,
                    -0.8798631977298905,
                    -0.4276756758133914,
                    0.8181007315688295,
                    -0.9940740409981356,
                    -1.7603750545699828,
                    1.911642174274018,
                    -1.5035105807406575
                ],
                "output": 0.18677120910569311,
                "delta": 0.009197238631972526
            },
            {
                "weights": [
                    0.3171459437192284,
                    0.34019336204802897,
                    -0.19101573498017893,
                    1.332998539742962,
                    0.0026776566086693186,
                    -0.2886319469008564,
                    0.413413794270723,
                    -0.25696188298612754,
                    -0.6659480257052198,
                    -0.25628398932713703,
                    0.9036036422417226,
                    0.02414355062146965,
                    0.9417259517335553,
                    -0.44599329988589814,
                    -0.6841550659108198,
                    -1.1615393436801973,
                    0.9010622212085195,
                    -0.845009699434505,
                    -0.6472752727382012,
                    0.25026417107010895
                ],
                "output": 0.43900419109982664,
                "delta": -0.005444604359909999
            },
            {
                "weights": [
                    -0.8203521383446516,
                    -0.7133129507432359,
                    0.371884745417243,
                    0.06243932471742255,
                    -0.3139653706149472,
                    0.48752058585206987,
                    0.06525830807685316,
                    -0.963238524111757,
                    -1.018155430445399,
                    1.1786635668333945,
                    1.450474864822691,
                    1.203195730480907,
                    1.3094565149977582,
                    -0.8642746358254957,
                    -0.8189269534919148,
                    0.43651662250036766,
                    0.8738088829818321,
                    -0.4143143808116431,
                    -0.6583455999464738,
                    1.6663907393459174
                ],
                "output": 0.7655248297346904,
                "delta": -0.010299490787171075
            },
            {
                "weights": [
                    -1.41927818678378,
                    0.19403925479178044,
                    2.070524775031845,
                    2.448915962700413,
                    0.7699835062697796,
                    -0.5832106085309255,
                    -1.3665548354241375,
                    -0.419528446726111,
                    -0.9209427128663042,
                    0.307659999915662,
                    -1.1518665984542509,
                    -1.7486341835982153,
                    0.875480197864571,
                    -0.9554452721892023,
                    -0.26752214938881547,
                    0.8623950730011645,
                    -1.7316738822611233,
                    -1.432456298327704,
                    -0.6561126881862492,
                    0.7768881452473679
                ],
                "output": 0.566317446101354,
                "delta": -0.009634702870251581
            },
            {
                "weights": [
                    -1.577249776363476,
                    0.40617178329676973,
                    0.22095850439988618,
                    0.7962719445508863,
                    -0.7207581701673459,
                    0.5595998280533823,
                    0.7334832191750523,
                    -0.7305203856515381,
                    -0.8485583940870431,
                    -0.09105348900164284,
                    -0.305152164989397,
                    -0.2638969474468697,
                    0.9737860900824133,
                    1.1951124723176896,
                    0.9422176819386906,
                    -0.6406798798449528,
                    1.0069414149625597,
                    0.08048462950185108,
                    0.186743623429703,
                    -0.28749908602271507
                ],
                "output": 0.7216403119613705,
                "delta": -0.005984039370744107
            },
            {
                "weights": [
                    -1.183680083849365,
                    0.3879086609669058,
                    1.1729427685472151,
                    -1.893870502579299,
                    -0.08272223650440852,
                    1.321602677999591,
                    -1.125733771197393,
                    0.1093890443297721,
                    0.4969087544884271,
                    -0.06571307995116586,
                    -0.9798568575770813,
                    1.1690208733651974,
                    -0.8428329890221782,
                    -1.0206230579496207,
                    -1.245480192108097,
                    0.6902045803349951,
                    -0.8994944828596957,
                    0.32916887052226995,
                    -0.2267958476037742,
                    1.0482537868531823
                ],
                "output": 0.45870051714809174,
                "delta": -0.003089174440425726
            },
            {
                "weights": [
                    -0.04574619968787977,
                    -0.18214242125316668,
                    0.9126587853878562,
                    -1.6060220668877556,
                    1.1239064159947671,
                    -0.526216307939338,
                    2.4264286580795864,
                    0.643245417402597,
                    0.05842158778208514,
                    -0.7530654718076673,
                    -1.3822669232477491,
                    -0.2232767295617775,
                    -1.1203767277859715,
                    -1.7537266239037657,
                    0.6287254505736345,
                    -1.3273235329028596,
                    -0.7318496718548838,
                    -0.4473057005550686,
                    -1.1070303907558159,
                    0.4362063821400972
                ],
                "output": 0.5688795034875912,
                "delta": -0.00653522307454984
            },
            {
                "weights": [
                    -0.2552404199370926,
                    0.972392596980839,
                    1.3480162327752205,
                    -0.6855912957858155,
                    0.5878009606232737,
                    0.5060307490005389,
                    0.3708921297900022,
                    0.6024240888175707,
                    -0.9952717933937777,
                    -0.704592001785186,
                    0.1523050711058953,
                    -0.614246494043553,
                    -1.6044827973654965,
                    -1.5095968213016047,
                    -0.8507951270418804,
                    -1.6129066998147028,
                    -0.1876552357937746,
                    -0.4841119092886721,
                    0.6110484203320002,
                    -0.9475518316064774
                ],
                "output": 0.0739008609943798,
                "delta": 0.006866360761231318
            },
            {
                "weights": [
                    1.5059472890347223,
                    -0.08367169046199556,
                    0.036120128444635566,
                    1.292700842015149,
                    -0.813014609666036,
                    -0.09115795454055133,
                    -0.046798277829302425,
                    -0.03994587347627563,
                    0.4733376238293629,
                    0.6249060642904216,
                    -0.9541333951201943,
                    0.8891368517906187,
                    1.3972603094479377,
                    1.2328079927817992,
                    -0.8926158666819038,
                    -0.9248665144396951,
                    0.8912502387225594,
                    0.8178789217751723,
                    -0.49746276622327945,
                    -1.5624605429210723
                ],
                "output": 0.4875335197884913,
                "delta": 0.006539469112880996
            },
            {
                "weights": [
                    -0.17526159883726483,
                    0.07317530168816894,
                    1.928733777896549,
                    1.9825138105680202,
                    -0.6826760378754406,
                    -2.043325178832477,
                    -2.2802318552736174,
                    -0.4490039193879322,
                    0.584777080887676,
                    -0.4194890188733182,
                    -1.6753066168540585,
                    -0.9646596454582337,
                    -0.8385911093691132,
                    0.19619278262823853,
                    1.4399954138144315,
                    1.576223193935411,
                    -0.31183651530129536,
                    -1.4029476971886596,
                    -0.26603164944183944,
                    0.0663516236204702
                ],
                "output": 0.2900299421237696,
                "delta": 0.002471087842103965
            },
            {
                "weights": [
                    0.16289701959117056,
                    0.35695155061710204,
                    0.020902379861731827,
                    -0.5351115693204902,
                    0.23653366638926152,
                    -0.04023229183447689,
                    0.8339495239279254,
                    0.6118812914976264,
                    0.8243469790467861,
                    1.067931839267307,
                    -0.43966931112802193,
                    -0.06137983850473997,
                    -0.008553865498266255,
                    -0.31799524474890684,
                    0.6205922277442087,
                    0.0724406255306525,
                    -0.6127149996930298,
                    0.37731339318017865,
                    -0.4608726078919434,
                    0.9916662855246163
                ],
                "output": 0.9722558417037914,
                "delta": -0.001277455127180091
            },
            {
                "weights": [
                    1.2277779607668384,
                    -0.29693120160736086,
                    0.4754915119908469,
                    -0.38843224224625894,
                    0.4730557920445072,
                    -0.6235245022636318,
                    0.26629655263344776,
                    -1.2659410936083793,
                    0.7489801159044635,
                    -0.1944784657784797,
                    -0.6656042639576547,
                    0.07122904933824516,
                    0.29031681569746787,
                    1.0617193829118554,
                    1.0311893904217795,
                    0.3296013456489211,
                    -0.4587009654124142,
                    0.1904692922734336,
                    0.17563481746632864,
                    -1.0023166063957776
                ],
                "output": 0.5669790817243365,
                "delta": -0.008039391965885493
            },
            {
                "weights": [
                    2.4544082274229058,
                    -0.596385785311236,
                    -1.55463672098983,
                    -1.9047050693951462,
                    0.5213048512993327,
                    -0.6282793469267941,
                    0.5107934205009075,
                    0.194499748782168,
                    -0.09639149937871473,
                    -0.10713245449032857,
                    -0.4176395914114478,
                    0.7946279015575474,
                    0.3149490962996298,
                    1.7088830106799069,
                    -0.5009071244122882,
                    0.525347598294001,
                    1.1745706544416776,
                    1.794929069989097,
                    0.8112067354993949,
                    -1.9191387950973993
                ],
                "output": 0.14640669250486793,
                "delta": 0.011108074793257592
            },
            {
                "weights": [
                    -0.5964715890616736,
                    -0.013936831495362479,
                    -0.7598014268452397,
                    0.3630368749364989,
                    1.1661353269805081,
                    -0.4578287508604957,
                    0.2620279475893456,
                    -0.4789604520057937,
                    -0.40268394950147185,
                    0.774903902489191,
                    1.0243100948037738,
                    -0.7138688035328473,
                    0.7040535533697317,
                    -1.2381285896612757,
                    -1.3083395503907642,
                    -0.8451104224506124,
                    -0.6003986880798571,
                    -1.024616022394301,
                    1.3531818856464612,
                    0.025200043456581885
                ],
                "output": 0.11233954364200346,
                "delta": 0.004973677876427077
            },
            {
                "weights": [
                    -1.4103542761516046,
                    -0.7859329897164873,
                    -0.14710607403971956,
                    -0.2579609048788173,
                    -0.6952876340055683,
                    -0.32353710786740214,
                    1.4976697003390331,
                    -1.6989219453446176,
                    1.578001754428591,
                    0.1767336658061642,
                    0.9957120301136271,
                    0.3138297084959229,
                    -0.7161483183772462,
                    -0.058582631525760646,
                    0.3649402018544294,
                    0.46610967839282436,
                    -1.3945441314062064,
                    -0.1631947502614993,
                    -0.02731540538879547,
                    0.8070936037634676
                ],
                "output": 0.5263179398228428,
                "delta": -0.0049907642656046415
            },
            {
                "weights": [
                    -2.1195022166540785,
                    0.4807043777071079,
                    -0.46683010941088976,
                    -1.3702444750031335,
                    1.5230102907437764,
                    1.5485415884359672,
                    1.171742898301253,
                    0.8397103838974672,
                    1.4745004933912502,
                    -0.6402031718679948,
                    -0.11678282874633102,
                    0.8372441387694911,
                    -1.285227102554826,
                    0.843845105092617,
                    -1.1327517672091545,
                    -1.110335581890233,
                    -1.1076099663029666,
                    -1.7733403521569406,
                    0.7789814376788283,
                    -0.15995644226556993
                ],
                "output": 0.7365069306166965,
                "delta": -0.014289851244205348
            },
            {
                "weights": [
                    0.40531005785496926,
                    0.48070871785114655,
                    -1.0231611149142819,
                    1.0476286447919476,
                    0.24828615630793857,
                    0.3285403329290165,
                    0.170586356745786,
                    -0.09482052376231197,
                    0.7397530762615755,
                    0.7418186746503677,
                    -0.1586981603822968,
                    -0.11596399144855257,
                    -0.2803763657145801,
                    -0.6253388682567104,
                    0.30128025035333883,
                    -0.12296330646291727,
                    0.4006424195477727,
                    0.3620904663122046,
                    0.3684068226615722,
                    -0.1018766158257461
                ],
                "output": 0.7900438704725102,
                "delta": -0.009388533080157135
            },
            {
                "weights": [
                    0.349522341542895,
                    0.8764790897206185,
                    -0.08050647898627375,
                    0.5289055039373037,
                    -1.2432696635176586,
                    -0.009950286986064512,
                    1.1421088491790734,
                    0.4881359471627795,
                    0.14069747758035225,
                    0.35840893374152677,
                    -0.47803254444841115,
                    0.004939889038908233,
                    0.4538313022447113,
                    0.3518072948470186,
                    -0.11715874221853614,
                    0.008765235303160299,
                    0.35181058409432864,
                    0.2758463013686695,
                    -0.09394828918217364,
                    -1.6531846476027812
                ],
                "output": 0.5369543822886679,
                "delta": 0.022245854049752063
            },
            {
                "weights": [
                    0.3800674964206792,
                    1.1211691946999343,
                    0.2466450494821194,
                    -0.4977390609173161,
                    0.3182619221744754,
                    0.4316735601149132,
                    -0.28919480674148534,
                    0.0025546298621620714,
                    -0.2311267223629162,
                    0.6845130679416004,
                    -0.12842163448883773,
                    -0.9105357351628766,
                    0.5934923031487843,
                    -0.6571419886772887,
                    0.8259660572425581,
                    0.5796359869706768,
                    -0.5146850657263479,
                    0.7906803042695039,
                    0.18088907925742095,
                    0.3768330061624274
                ],
                "output": 0.9136120453635829,
                "delta": -0.0011427673280317427
            },
            {
                "weights": [
                    -0.33398591776525544,
                    -0.8514030061310239,
                    0.7768686867015943,
                    0.8138106800544882,
                    0.6260238320644389,
                    -1.9407082503957784,
                    -0.04329782202959137,
                    -0.10620775867954939,
                    0.09270474333855212,
                    -0.020864092934412142,
                    0.08943422932006742,
                    -0.1835096272289644,
                    1.3101761164187353,
                    -0.5144428919356167,
                    0.07930083088725562,
                    -0.581281785145571,
                    -0.8705931994967021,
                    -1.0451386684748902,
                    1.4760391899655698,
                    0.9652625009073021
                ],
                "output": 0.48223149311266544,
                "delta": -0.013536068294979432
            },
            {
                "weights": [
                    1.1551852316948321,
                    -0.5952472313638848,
                    0.8211191824653168,
                    -0.19253913917553347,
                    -1.2991607937659961,
                    -0.49816106605135396,
                    -0.26644409411962855,
                    0.8327911346340681,
                    0.3784563664148347,
                    -1.0615623806819596,
                    0.34689842435335383,
                    -1.2239027970583087,
                    0.5286670476445468,
                    -1.089247113227731,
                    0.9499404646418467,
                    0.5984346148675606,
                    0.6035141150132668,
                    -0.28463359347551764,
                    -0.962857374862073,
                    -0.13785777576238728
                ],
                "output": 0.4244183749191481,
                "delta": 0.014722748579694672
            },
            {
                "weights": [
                    0.5256951349933147,
                    -0.8771061899672687,
                    -0.5014389307170939,
                    0.27109193271585835,
                    0.7169104609318713,
                    -0.6920802872864095,
                    -0.7606235312419649,
                    0.5622255182853727,
                    1.1969086338726729,
                    -0.4586293217896522,
                    -1.1268268710632712,
                    -0.017088505035270995,
                    -1.106881339270768,
                    -1.4410543353513083,
                    0.21277799649571136,
                    1.066143352002852,
                    -0.8793118770683696,
                    0.2904618356611724,
                    -0.6436327069627514,
                    1.8320415444753035
                ],
                "output": 0.6596763628059609,
                "delta": -0.015012642325799231
            },
            {
                "weights": [
                    1.2363312846314152,
                    -0.7868911787800095,
                    -2.8645794012759347,
                    -0.7694307029254557,
                    0.22414347110892494,
                    0.8155428473308609,
                    0.5876373056541964,
                    0.4515166467978724,
                    0.2912223872728434,
                    -0.3759817079747381,
                    1.6538065718825337,
                    1.7815435072989871,
                    1.661595234274876,
                    0.9955815060611148,
                    -1.3918739084985694,
                    -1.8453189146015612,
                    0.5822298131572294,
                    0.5625790126803046,
                    1.0489480147495496,
                    -0.9479248235982289
                ],
                "output": 0.1679826063012503,
                "delta": 0.009451496457159536
            },
            {
                "weights": [
                    -0.18066551051686433,
                    0.6992260844595676,
                    0.19687160822191768,
                    -0.863264647603079,
                    -6.201819836644645e-05,
                    0.2912511309303995,
                    -1.0528793287433669,
                    0.48106746169093817,
                    -0.7616534890346586,
                    -0.9599432143253017,
                    0.7170124688281011,
                    1.1646204637057778,
                    -0.8862635583609715,
                    -0.6359021437169305,
                    -0.5706762768318818,
                    -0.44861569519646893,
                    0.7181891386297227,
                    0.5589972180764761,
                    0.4106755921850611,
                    0.32040785626568097
                ],
                "output": 0.19342064186522492,
                "delta": 0.00024222568203456751
            },
            {
                "weights": [
                    -0.13030655652761103,
                    -0.3162985208980683,
                    0.4668347706005843,
                    -0.7771999627051559,
                    0.4315613275114186,
                    0.34718814041577145,
                    0.851762655770719,
                    0.14994829364462198,
                    -0.5012352705065862,
                    -0.6069455438530289,
                    -0.12643972669594247,
                    -0.19350258563810227,
                    0.7219938895918085,
                    -0.4388940979316324,
                    -1.0352426876467626,
                    0.27927379543630027,
                    -0.44774017979268255,
                    -0.23586286894989497,
                    0.048539155335342456,
                    -0.6225588115778753
                ],
                "output": 0.2699904452689138,
                "delta": 0.004853975043360153
            }
        ],
        "hidden_to_output": [
            {
                "weights": [
                    -2.3570402318842647,
                    -1.2122876702870886,
                    -0.7076063710564212,
                    -0.8937509944320452,
                    0.6412640174844139,
                    0.1847042083275586,
                    1.1781162147760964,
                    -1.5330476621023807,
                    -2.2059773953600197,
                    0.22391555200030483,
                    -0.3449075902027916,
                    1.7281316620712985,
                    0.9416846762252672,
                    -0.922207766770876,
                    0.7886040764239425,
                    -1.0299714694047228,
                    0.9459929910526089,
                    -1.250839611575946,
                    -0.3253801870881586,
                    0.3431789770709344,
                    -1.8708198705061099,
                    0.5729410634158594,
                    -1.9594024792790345,
                    -0.26739972221613156,
                    -2.3595310909912657,
                    -0.6552507027409094,
                    -0.34895049364749586,
                    -0.6051171048931314,
                    -1.527446248974937,
                    -0.0433245436154471,
                    -0.2815466297762692,
                    -0.5565974049216316,
                    -2.7440346988814555,
                    -0.9407353657409729,
                    -1.2657278261201503,
                    0.34031997898528765,
                    1.576526740093737,
                    0.14968538469343684,
                    -0.8996838213074674,
                    0.6270428701816069,
                    -0.4214268690978781,
                    -0.4604050994551763,
                    0.42170161989352106,
                    -0.08149279791555321,
                    0.06619517348565027,
                    -0.6261836568063638,
                    2.1492085232808007,
                    -0.6628099601706727,
                    -0.6344488427572887,
                    -0.9659477595392187,
                    -0.6523213466661248,
                    0.6722691954866264,
                    -0.25382786392776185,
                    -0.6617202888922833,
                    0.9185725470576708,
                    -0.14071471269513516,
                    0.5053408047689831,
                    0.5717531537099153,
                    0.10739432274698987,
                    -0.8200139033777578,
                    0.18688118159481448,
                    1.3637580318538856,
                    -0.3575467298592982,
                    -0.7262342539884408,
                    0.32429479410444495,
                    -0.234072896556842
                ],
                "output": 0.01819337739233775,
                "delta": 0.0002288139762539066
            },
            {
                "weights": [
                    -1.245061697931291,
                    0.5164482626130571,
                    0.08312099429243805,
                    0.43698064926102553,
                    -0.4411526271575206,
                    -0.06622052909587083,
                    0.8963817433640229,
                    -0.7853199996712185,
                    1.1966863741283458,
                    -0.9599294267542331,
                    0.5645623844852263,
                    0.20031182994019514,
                    -0.8563685235071175,
                    -0.7383282035461408,
                    -2.245924993632866,
                    -0.743038118302737,
                    -0.7297634356981532,
                    0.011920297267649977,
                    0.8734768854125838,
                    1.6296099048087285,
                    -0.42174206984128004,
                    0.04176334604723008,
                    -1.212097444953368,
                    -0.25316421801814565,
                    0.46164488890571576,
                    -0.14780868654730245,
                    -0.19117367075852248,
                    -0.2604622175933376,
                    -0.19052908334000132,
                    -0.33250413289214176,
                    -0.15906022127722488,
                    -0.07606154893927665,
                    -0.6421883042269955,
                    -0.5681539068368385,
                    -1.2609477395706927,
                    0.26532380839655545,
                    1.054080718137453,
                    1.2814273609769402,
                    -0.6724511148174159,
                    -0.09576733149317528,
                    -0.47000154257885807,
                    0.47327214268446505,
                    -0.6265432067548863,
                    0.4696265724316562,
                    0.2970218150705152,
                    -1.348938167839465,
                    0.9767616565668344,
                    0.1823490958726982,
                    -0.7069658917351614,
                    -1.6286150379671243,
                    -0.954903182586877,
                    -0.3985011308041246,
                    -1.2335248996623738,
                    0.1619898060203639,
                    0.07766967159475756,
                    0.007015777160438554,
                    0.5054651237384692,
                    0.21639536112922766,
                    0.333418240572352,
                    0.021323360813826638,
                    -1.4941686571535941,
                    0.013046565103117563,
                    -0.7925753258154157,
                    -0.4404466680327413,
                    -0.4675598206891977,
                    0.2378953142867516
                ],
                "output": 0.08780400868131856,
                "delta": 0.00014069981129314742
            },
            {
                "weights": [
                    0.8772743096874334,
                    -1.015137251154409,
                    -0.8938578495288475,
                    -1.308006028448604,
                    -0.007837609034227965,
                    -0.28285519499116124,
                    0.19757319537636767,
                    0.692249444003539,
                    -0.9273494311048611,
                    0.03779337172555572,
                    0.44861456998715266,
                    0.17646760953734977,
                    0.7675712351733611,
                    0.133779758967197,
                    -0.8675081610226786,
                    -0.5510221580685958,
                    -0.31729002436542625,
                    -0.6627953108251436,
                    -0.3193350507246427,
                    -0.054801174775796296,
                    -0.006093703706826277,
                    -0.4098103848149785,
                    -0.29381076902230174,
                    0.07526642258668258,
                    -1.4924865730286874,
                    -0.34679161462774527,
                    -0.7551061070981256,
                    -0.8868793565311875,
                    -1.0944932303198656,
                    -1.2059911713646054,
                    -0.6994862481120541,
                    0.22011278022446426,
                    -0.3545642937059429,
                    -1.9468094972304777,
                    -0.4365563230017434,
                    0.7770769237683723,
                    0.8192217392792066,
                    0.47143501012750977,
                    0.045319347084039556,
                    0.7781517166795163,
                    -1.3742786715202244,
                    0.04850604342699598,
                    1.3720587446878554,
                    1.4118920852548187,
                    -0.24485526257957274,
                    0.3467727657226317,
                    0.31423130322612564,
                    0.027673504242384378,
                    -0.7595820603143532,
                    -1.0754252428441315,
                    -0.6266782005778262,
                    -0.5948013284299951,
                    -0.3216217352104917,
                    -0.3713421012345249,
                    0.8095694492089796,
                    0.17378102377524968,
                    -0.6669941920197753,
                    -0.5803012623942226,
                    0.7340891436254738,
                    0.4707854648355055,
                    0.22022515654745242,
                    1.3658404067043555,
                    -1.6218178247289368,
                    -0.6797805374990943,
                    -0.15026121913678844,
                    -0.6695048294650991
                ],
                "output": 0.09211376445692872,
                "delta": 0.0003380822508544879
            },
            {
                "weights": [
                    -0.7710342861487859,
                    -1.1382665920903479,
                    -0.48994314967805436,
                    0.24024322221189617,
                    0.980329245332554,
                    1.1568702449420813,
                    -0.4767732485420423,
                    0.3326175104268991,
                    0.7118635932643073,
                    -0.7710545403999297,
                    0.02494200695594255,
                    -1.4825775322382357,
                    0.020052115488346962,
                    0.9585672985052092,
                    -2.0054149735012925,
                    -0.3984823224989703,
                    0.39256187304384277,
                    -0.08703689904237824,
                    -1.7565548999148155,
                    -0.13010905828609265,
                    1.1274345311192904,
                    -2.3438281123119338,
                    -0.6935956766204471,
                    0.5970628133485818,
                    -1.9314151446880201,
                    0.7631948333970199,
                    -1.0441398170367437,
                    1.018267632946106,
                    0.8141236853312958,
                    -0.14475637669157135,
                    -0.09680158088993661,
                    -0.9714507994218148,
                    -1.3090447290303775,
                    -1.1981244229260541,
                    -1.8865005793345444,
                    -0.25714156077955125,
                    -0.7583009570364355,
                    -0.757410558123701,
                    -0.831376330833107,
                    0.9558525202911781,
                    -1.6528519639988608,
                    -1.1586210430147261,
                    -0.38543300710400585,
                    -0.43792990797371156,
                    -0.19837812970863677,
                    2.234496038816056,
                    0.15579137561827147,
                    0.05985937856959175,
                    1.0782035523665856,
                    -0.9965371142226366,
                    -0.6740383692218541,
                    -0.7496912169137179,
                    -1.9293018323406637,
                    -0.40465196320967534,
                    -0.1251705645135312,
                    1.0036404061637614,
                    -0.4073718261320269,
                    -0.012777556538801088,
                    -0.3622652665443726,
                    -0.7403011185887045,
                    0.37565260042354237,
                    0.4471892532026361,
                    -0.9801580203720903,
                    0.8991050608046437,
                    0.5585781025914203,
                    -0.494491054958186
                ],
                "output": 0.1737568858356435,
                "delta": 0.002725054818905292
            },
            {
                "weights": [
                    0.2681367739646004,
                    -0.5755905239290899,
                    0.4832110586783531,
                    -0.9554561363807795,
                    -0.06205041221196137,
                    -0.14641634044429233,
                    -0.07249718726551901,
                    0.6436989629805311,
                    0.9820816678456115,
                    0.41493752561033553,
                    -0.045296351166153465,
                    -0.62752203447309,
                    -0.2220259832264431,
                    0.008404747743388053,
                    1.2449918106623683,
                    -1.6269532824060822,
                    0.4796579876668097,
                    -0.15812134625723281,
                    0.7324302762769496,
                    -0.28835594776183215,
                    -0.1957935136539683,
                    0.11200330134238935,
                    0.7661588071896976,
                    1.0868734728115839,
                    0.34812487409944787,
                    -0.576472976526392,
                    0.1181837483521287,
                    0.1313978595808847,
                    0.42276621063017816,
                    -0.5171216296834703,
                    0.1871310136908252,
                    0.5877011774107838,
                    -0.2906766932706776,
                    0.048743822172839735,
                    -0.19286585328099703,
                    0.2654954277239773,
                    0.30086005648839637,
                    -0.16485344375740654,
                    -0.1868094148567297,
                    0.1627201885913483,
                    1.3120506379012673,
                    0.5048867732625034,
                    -1.3325841356742734,
                    -0.684733395860139,
                    -0.8877851192130588,
                    -1.242070458271181,
                    -0.6295565649336996,
                    1.1265124679687932,
                    1.1948731551862724,
                    -0.11251228200284182,
                    -0.1806699395239557,
                    0.23102872683862608,
                    0.9801833027826675,
                    0.606525169055182,
                    -0.9869748426011592,
                    -0.3140833579617633,
                    -0.23413386936957978,
                    0.44927681457398677,
                    -0.8328930239180353,
                    -1.5624114077095803,
                    0.8514055203532918,
                    -1.0395876585760413,
                    0.7918911136456135,
                    -0.4758389278054533,
                    -0.3634340060056296,
                    0.5463704602605629
                ],
                "output": 0.05498948686361532,
                "delta": 0.013215480114631391
            },
            {
                "weights": [
                    -2.120927524643615,
                    -0.35779303038544896,
                    0.3257642913054519,
                    -2.0823329197032456,
                    -0.6304814714488266,
                    0.28301703730833405,
                    0.035485816794557985,
                    -1.4001779194608424,
                    1.1157997715998091,
                    -0.4004014698150714,
                    0.3110301364037717,
                    0.6167560457815836,
                    0.17469436579905398,
                    0.3881748763137628,
                    -0.8390616468731915,
                    -0.9470296033046002,
                    0.023564743302441158,
                    0.7040941541689097,
                    -0.8762007484413045,
                    -0.12348628551979952,
                    -1.0143748338594905,
                    -1.0726612202557038,
                    0.3548500415262066,
                    -0.27759711827547184,
                    -1.1797356905080256,
                    -0.1584200965464123,
                    0.9486683505775823,
                    0.5401255763559198,
                    -0.8286625592222248,
                    -0.19209597618262522,
                    0.4524462438533644,
                    -0.8005364920959553,
                    0.021698650023428193,
                    -1.6382303913670482,
                    0.9372776637167255,
                    0.20822018507779022,
                    0.6419155233540874,
                    1.3853372263451496,
                    -0.8103746337486427,
                    -0.4339518602940841,
                    -0.005191589487682956,
                    -0.45698056838032575,
                    -0.1518002906565837,
                    -1.1154824101707503,
                    -1.2890681402010962,
                    1.2766204732497435,
                    1.1803438932818506,
                    -0.12031863572756775,
                    -1.5134916928075965,
                    -1.8600608571697441,
                    -0.039242202493808304,
                    0.18548885189726325,
                    -0.2765056039461812,
                    -0.308960682136396,
                    0.42753097202469825,
                    0.43029256740975835,
                    -0.8816977545141618,
                    -0.12474218806530163,
                    -0.02843788169721891,
                    -1.34420505070313,
                    -0.4461733772482293,
                    0.06635860314026956,
                    -2.0335388794345737,
                    1.123877812979544,
                    0.6855512753721252,
                    -0.6101771585698482
                ],
                "output": 0.015158866809994431,
                "delta": 1.3433884013950309e-05
            },
            {
                "weights": [
                    0.09958564826928815,
                    -0.6470409279473428,
                    0.8386207707246915,
                    -0.6663633375094447,
                    1.147152506842778,
                    -0.22189767050155257,
                    0.1542116222112108,
                    -0.18365969134320204,
                    0.5125186703145519,
                    1.0087601098831849,
                    -0.1835135373377149,
                    -0.35114527800185513,
                    0.2530966697581283,
                    -0.4435041535707483,
                    -0.09483991635441381,
                    0.9504240133796796,
                    0.9748107140566203,
                    0.303154232677521,
                    -0.3835091136665444,
                    0.7958699373061107,
                    0.12107180076902169,
                    -1.100218930922818,
                    -0.08526746874911954,
                    -0.0787804548460783,
                    0.9437172692225508,
                    -0.5564977258898914,
                    -0.6386649347253712,
                    -1.0029999745220737,
                    0.10744946406261406,
                    -0.030806741210133,
                    1.050018783174488,
                    -0.4899786115910877,
                    0.13775132422942443,
                    1.286537925024065,
                    -1.1471037558186261,
                    0.0447962546870948,
                    -0.1397571371454467,
                    0.9099401550328235,
                    -0.4021122961128013,
                    -0.5348177150857137,
                    0.2376970993415426,
                    -0.43258015703372493,
                    -0.6036958382424292,
                    -0.21720011009082216,
                    -0.5911125754736251,
                    -0.3783111785447966,
                    -1.0323669086862974,
                    0.9422710224956716,
                    -0.0831858283984793,
                    0.16081436656503748,
                    0.11101490988076475,
                    -0.5021869172367892,
                    0.6522811085325936,
                    0.34158736671129397,
                    -0.14721864617363836,
                    -0.5639459368277279,
                    -1.1574765241702731,
                    1.448472032645962,
                    0.7750165400522117,
                    -0.24615033606360956,
                    1.1286800553892409,
                    -0.14078585359227594,
                    -0.5955459369153825,
                    -1.1519115665941442,
                    0.11626907437452873,
                    0.09630034896787969
                ],
                "output": 0.17218024599483342,
                "delta": 0.03370471961927589
            },
            {
                "weights": [
                    -2.447058310655313,
                    -0.7094830106483435,
                    0.13514103818971013,
                    -1.8837602510574507,
                    1.425757961721743,
                    1.3532413131920518,
                    -0.23850762155628805,
                    0.14291284838723484,
                    -2.7909752627862696,
                    -1.2267497993473853,
                    -0.029455017989805536,
                    1.941452111912619,
                    -1.185127338072005,
                    0.5734416782342041,
                    -1.8144504483897816,
                    -0.34659167009763037,
                    -0.7887401761910898,
                    -2.875026639970486,
                    -0.8721131142017121,
                    -2.181392934545988,
                    1.6189922146810394,
                    -1.6010483465817782,
                    -0.892628042787333,
                    -0.8830338403816068,
                    -3.0564679658919953,
                    -0.3650252590924636,
                    -0.20408538988487435,
                    0.6708898052613541,
                    1.8321998978202578,
                    0.4436347464648039,
                    1.1944885042775848,
                    -2.392390632190492,
                    -0.5445009210482074,
                    -1.0203355722385041,
                    -2.96750430288988,
                    -0.49028036886251686,
                    0.5484483307768326,
                    -0.05558959886916945,
                    -1.4985868735224483,
                    -0.6536941799602506,
                    -1.5593624063105171,
                    0.5015927137469106,
                    0.7902959106898777,
                    0.4847607117756719,
                    -0.330596716079526,
                    -0.2022540496395739,
                    -0.36730938361365484,
                    -0.9461459474788877,
                    -0.7218255922608702,
                    -1.3433558631989972,
                    0.8923119411721642,
                    -0.009412238302967097,
                    -1.193539162485365,
                    -0.441290299688837,
                    -0.32568288336127704,
                    2.2783145061479178,
                    0.02765681346870631,
                    -1.5063854781255794,
                    0.7428509408206937,
                    0.8103628746281539,
                    -0.6806471154603905,
                    1.6735015423473836,
                    -1.5380332009998638,
                    -1.1738258753740773,
                    -0.6491383805147488,
                    0.45053163636533167
                ],
                "output": 0.6449000794724707,
                "delta": -0.030940710190820172
            },
            {
                "weights": [
                    -0.735474161279786,
                    -0.5493655686279477,
                    0.1070569335441143,
                    -1.6322584617920182,
                    0.4678623717389381,
                    0.7922009776250003,
                    -0.047915649870282254,
                    1.4483822045900427,
                    0.12323176000690945,
                    -0.05197820909775229,
                    -1.1748903609486092,
                    0.09044595733982612,
                    0.6024257702752924,
                    1.1487095184528062,
                    -2.026499574178739,
                    -0.35227495112480406,
                    0.16610724563802118,
                    0.08082663558816947,
                    0.07327743183515895,
                    0.3203589225825927,
                    0.8742931248636597,
                    -0.9198291671193375,
                    -0.7133605722654961,
                    -1.0963626827272304,
                    -1.5597599153140065,
                    -0.48129246582044544,
                    -0.7407202105966914,
                    -0.49429462321942075,
                    -1.9423534026396652,
                    -0.5034546574542714,
                    -0.2520359578990887,
                    0.4491992258948341,
                    -0.0698124056150365,
                    -0.23400816453765802,
                    0.016864399082851093,
                    -0.1627136192247323,
                    -0.8538598775382504,
                    0.355662314853808,
                    0.06591505246857765,
                    -0.794145145917692,
                    0.03751573916810675,
                    -1.0056851549123011,
                    0.6450477497396458,
                    2.2218775350228483,
                    -0.8034931354500097,
                    0.16034371174566267,
                    0.32573643556091486,
                    -0.7915709960260755,
                    -1.2422251155581818,
                    0.22186831644468663,
                    0.697712558794428,
                    -0.9137583775360516,
                    -0.5466933377798493,
                    0.4302963563472811,
                    -0.37794068490986177,
                    1.170099249108342,
                    -0.5460788675990185,
                    -0.4910195448607777,
                    -0.36694099113977663,
                    0.4786085837992017,
                    0.1589882071817836,
                    0.8805886059590676,
                    -1.5449667873139463,
                    -0.30603968360978734,
                    -0.7702094925625926,
                    -0.08407875391366845
                ],
                "output": 0.028211713063499236,
                "delta": 5.457288016593734e-05
            },
            {
                "weights": [
                    -0.9687725341078626,
                    -0.818424340002635,
                    -0.9435107417606589,
                    -0.7160071736000844,
                    -0.7670253797403168,
                    0.21861182915482305,
                    0.20389683378344686,
                    -0.4306836797053519,
                    1.478257309582837,
                    -1.7832416447569817,
                    0.010603711816277395,
                    0.7579363090738991,
                    0.5506351395437061,
                    0.06611936518574499,
                    -3.0420619190938125,
                    -1.1532437841404966,
                    0.9849069180029434,
                    -0.6096680220603522,
                    0.022096825484908416,
                    0.5303514851476999,
                    0.738442588242623,
                    0.6656303386212957,
                    0.4356622682383456,
                    -0.1154469310433453,
                    0.16394312727015975,
                    0.3317850351614971,
                    -1.0584518040749504,
                    -0.6770033208126044,
                    -0.3234730802799013,
                    -0.8713865098432945,
                    -1.1216948871302121,
                    0.4955523784944407,
                    -0.5567121069347706,
                    -1.6487007168561905,
                    1.2778344508015815,
                    -1.158483901879655,
                    1.2146905113528288,
                    -1.0039127557281953,
                    -1.537120752326869,
                    -1.0571879679962013,
                    -1.6785263194786177,
                    0.06066860390161206,
                    -1.0092211786332455,
                    2.0993021340824014,
                    -0.7806348548462217,
                    0.1740576829516593,
                    0.21153999710869084,
                    -0.9045257129347223,
                    0.2384815446052466,
                    1.6220764412531627,
                    -0.49546326890143644,
                    0.8517392741811851,
                    -1.218821070663683,
                    -0.07785247235282107,
                    0.4225941707955583,
                    -0.06686819481946694,
                    -1.546818117082326,
                    0.4399191055815653,
                    0.055746195544523085,
                    1.3402544267736842,
                    0.1656092935219518,
                    0.6562012100553493,
                    -1.3064650376281344,
                    -0.3846492309454775,
                    -0.1685099030542572,
                    0.42242531221617863
                ],
                "output": 0.015112429343951435,
                "delta": 8.780180831460221e-08
            },
            {
                "weights": [
                    -1.2831158212544345,
                    -0.16514294302663723,
                    -0.08559485159358171,
                    0.4654544822165676,
                    0.5164516745715576,
                    -0.22676547547866474,
                    -0.886488076335115,
                    -0.01288081476220507,
                    -2.8212557848437276,
                    -0.4157495185554792,
                    -0.3017490943007566,
                    1.9650141743452596,
                    0.43704578228338675,
                    0.73109151359861,
                    1.7105386912685627,
                    -1.25367528553973,
                    0.48921385178164706,
                    -0.38468357740034165,
                    1.2357148738806025,
                    -0.9917435615944081,
                    3.616000982179616,
                    -0.9584439998583181,
                    -1.5419247788386894,
                    -0.13088956538502777,
                    -1.0291853111166736,
                    -0.5346917756091023,
                    0.1691233859143463,
                    0.5790961701703455,
                    -3.0001816241709816,
                    -0.03403517580363442,
                    -0.9871991749962128,
                    -1.1623446919612175,
                    -1.5867058614540148,
                    0.4433804704882809,
                    0.06320366328564742,
                    -0.5042905466447778,
                    -0.670556214241208,
                    -0.09303165355799278,
                    -1.0542183686158029,
                    -0.5868008648674917,
                    -0.24657783495819913,
                    0.30473165522938034,
                    1.557695362952658,
                    -0.7299382477720263,
                    -1.0642232471469462,
                    0.6267042531868344,
                    -0.26528072078878934,
                    -1.5020448570962277,
                    -1.3403896685164043,
                    -1.7882759157299761,
                    -0.8546112051639762,
                    -1.4080193948579025,
                    -1.1484467186431546,
                    0.559543831333979,
                    -2.032104152359551,
                    1.3064095322964384,
                    -0.2593391481920859,
                    -1.4554330802259472,
                    -0.6403080274756118,
                    0.28479664763282586,
                    -0.5139582992852247,
                    0.46901543426473424,
                    0.8060973405446288,
                    1.4037612602181648,
                    0.336443007629636,
                    -0.4421220464459926
                ],
                "output": 0.00025822051342578174,
                "delta": 0.007377454902260149
            },
            {
                "weights": [
                    0.7275805187156933,
                    -0.29503373443061365,
                    -0.10503287633506932,
                    1.952605553557306,
                    0.5027532912772193,
                    -1.2475927178835975,
                    1.0383758161985994,
                    -0.7805127960466788,
                    -0.48361714734298666,
                    -0.6991332242367613,
                    -0.6037476362820982,
                    -0.9845684572854175,
                    0.8870571880440897,
                    -1.232209429033985,
                    -0.7168746911612993,
                    0.7224043080191375,
                    0.5902287526832057,
                    0.7803321966850385,
                    -1.251319946784492,
                    -0.862898560974696,
                    -1.2910580893169308,
                    -0.4091577919389113,
                    0.73187346814788,
                    -0.4597688296941267,
                    1.2315357012646075,
                    -1.7084700880131074,
                    0.6357704883423725,
                    -1.1197843599520023,
                    -0.21520290900005526,
                    0.47686023444539627,
                    0.21279503674558128,
                    1.3060679470632737,
                    1.3216255097238823,
                    -1.5059906176100235,
                    0.9027044605362541,
                    -0.9509262230886175,
                    -0.37561451007413027,
                    -1.7058326966205135,
                    1.5949431399636658,
                    -0.1413216241859113,
                    1.819802908134881,
                    -0.18938881952632458,
                    -0.7772443802241144,
                    -1.0501390417358971,
                    0.7805898149524143,
                    0.30781342248655863,
                    0.017138546969226533,
                    0.2698286400889231,
                    0.42631074879321645,
                    -0.6178447876311949,
                    0.17662637600589332,
                    -0.22616034182627331,
                    0.021880589652124607,
                    1.154930407341248,
                    -0.09552719415733131,
                    -0.35067699200169705,
                    -0.763474179283448,
                    -0.2845519462272773,
                    -0.05355234908670394,
                    0.8519859152878297,
                    -0.07941535041169066,
                    -0.7634064056291001,
                    0.25076768107254416,
                    0.49726756310427195,
                    0.038442618358098445,
                    -0.9202547245391479
                ],
                "output": 0.0005557785791439523,
                "delta": 7.248162405665112e-08
            },
            {
                "weights": [
                    -0.7951697742398045,
                    -0.8640522686724605,
                    -0.201760507192662,
                    0.44460372872451237,
                    0.6672509461426243,
                    0.6741455796807291,
                    -0.8803654295385619,
                    -0.8927799456842809,
                    0.9812358316268872,
                    0.03314942118931731,
                    -0.23812971902960917,
                    1.3554296279601221,
                    -0.420859799910748,
                    1.3640467555810605,
                    -1.7009116083465285,
                    0.018540380499116924,
                    -0.09784421722929426,
                    0.23458844688200467,
                    0.309368396380776,
                    -0.5529511768474286,
                    0.32122923523384866,
                    -2.33973776141904,
                    -1.4625023124629137,
                    0.8818434267531126,
                    -1.7021488109332978,
                    1.207835818470587,
                    -0.9086979479771062,
                    -0.10758400716669947,
                    -0.9020359887002555,
                    0.3107234586887151,
                    -0.31642601587344754,
                    -0.0790684628374489,
                    -0.2331641850952245,
                    -0.4840773644695564,
                    -2.7884077277347523,
                    1.9038086480487355,
                    -0.5107002954630913,
                    0.5992083742575138,
